/*!
 * The following copyright notice may not be removed under any circumstances.
 * 
 * Copyright:
 * Generated in 2009 by FontLab Studio. Copyright info pending.
 */
Cufon.registerFont({"w":618,"face":{"font-family":"junction regular","font-weight":400,"font-stretch":"normal","units-per-em":"1000","panose-1":"0 0 0 0 0 0 0 0 0 0","ascent":"750","descent":"-250","x-height":"12","bbox":"-35 -841 1011.83 275","underline-thickness":"50","underline-position":"-50","unicode-range":"U+0020-U+201D"},"glyphs":{" ":{"w":260},"!":{"d":"174,-184r-66,0r-13,-636r92,0xm141,7v-31,0,-56,-25,-56,-56v0,-31,25,-55,56,-55v31,0,55,24,55,55v0,31,-24,56,-55,56","w":281},"\"":{"d":"105,-659v-34,1,-60,-23,-60,-56v-1,-31,25,-55,56,-55v41,0,61,41,61,82v-1,48,-25,102,-74,162r-42,-14v33,-41,53,-81,59,-119xm276,-659v-34,1,-60,-23,-60,-56v-1,-31,25,-55,56,-55v40,0,61,41,61,82v-1,48,-25,102,-74,162r-42,-14v33,-41,53,-81,59,-119","w":378},"#":{"d":"95,-488r17,-72r171,0r52,-210r74,0r-52,210r176,0r52,-210r74,0r-52,210r178,0r-17,72r-179,0r-43,177r184,0r-17,72r-185,0r-58,239r-74,0r58,-239r-176,0r-58,239r-74,0r58,-239r-164,0r17,-72r165,0r43,-177r-170,0xm339,-488r-43,177r176,0r43,-177r-176,0","w":825},"$":{"d":"604,-211v3,134,-107,214,-233,221r0,58r-64,0r0,-60v-109,-13,-193,-61,-250,-145r61,-58v43,69,106,110,189,123r0,-296v-105,-33,-202,-68,-205,-200v-2,-75,30,-134,74,-164v39,-27,77,-43,131,-48r0,-61r64,0r0,62v85,8,152,38,201,91r-62,54v-35,-35,-81,-57,-139,-64r0,262v71,23,102,34,157,71v47,32,75,80,76,154xm371,-70v79,-7,150,-56,149,-141v0,-37,-12,-65,-38,-85v-26,-20,-63,-37,-111,-52r0,278xm307,-699v-66,11,-125,49,-121,131v3,70,58,89,121,112r0,-243","w":655},"%":{"d":"949,-201v0,134,-73,208,-189,208v-124,0,-188,-79,-190,-210v-2,-134,72,-210,189,-210v55,0,94,16,128,43v40,31,62,95,62,169xm439,-568v2,134,-73,208,-189,208v-124,0,-190,-79,-190,-210v0,-131,65,-209,189,-209v126,0,188,78,190,211xm751,-814r86,0r-580,861r-86,0xm364,-568v0,-95,-37,-155,-115,-155v-75,0,-114,60,-114,153v0,94,39,154,115,154v76,0,114,-60,114,-152xm874,-201v0,-94,-37,-156,-113,-156v-76,0,-115,62,-115,156v0,93,38,152,114,152v76,0,114,-60,114,-152","w":1009},"&":{"d":"825,-99v-28,58,-44,104,-125,104v-23,0,-73,-31,-149,-101v-60,69,-140,103,-240,103v-55,0,-107,-22,-151,-46v-51,-28,-100,-86,-100,-161v0,-49,15,-90,46,-124v31,-34,75,-67,131,-98v-34,-37,-59,-71,-77,-99v-32,-50,-36,-113,-8,-163v33,-60,105,-86,194,-86v113,0,211,48,208,164v0,39,-17,73,-50,102v-33,29,-81,60,-144,92r184,197v34,-53,60,-115,89,-172r62,38v-53,105,-85,168,-98,189v59,59,94,86,103,85v29,-2,29,0,46,-16v8,-9,17,-22,25,-40xm284,-373v-44,24,-78,50,-103,77v-42,46,-53,122,-3,166v36,31,80,53,133,53v74,0,135,-25,184,-74xm346,-710v-69,0,-130,32,-128,104v0,29,32,77,95,144v59,-32,94,-45,133,-88v16,-18,24,-37,24,-56v2,-73,-55,-104,-124,-104","w":880},"'":{"d":"105,-659v-34,1,-60,-23,-60,-56v-1,-31,25,-55,56,-55v41,0,61,41,61,82v-1,48,-25,102,-74,162r-42,-14v33,-41,53,-81,59,-119","w":207},"(":{"d":"302,-770r6,70v-106,41,-140,196,-156,328v-17,134,-3,254,24,368v19,83,62,170,132,195r-6,70v-81,-9,-138,-81,-168,-148v-71,-159,-98,-406,-44,-606v25,-94,54,-175,114,-231v29,-28,62,-43,98,-46","w":338},")":{"d":"30,-700r6,-70v81,8,138,79,168,146v71,159,99,408,44,608v-25,93,-53,173,-113,229v-29,28,-62,44,-99,48r-6,-70v106,-40,140,-198,156,-329v17,-134,3,-252,-24,-367v-19,-84,-62,-169,-132,-195","w":338},"*":{"d":"49,-567r25,-65r202,81r-2,-219r70,0r-2,219r202,-81r25,65r-207,81r144,160r-58,49r-139,-172r-138,172r-60,-49r144,-160"},"+":{"d":"353,0r-67,0r0,-242r-236,0r0,-67r236,0r0,-241r67,0r0,241r247,0r0,67r-247,0r0,242","w":650},",":{"d":"100,7v-34,1,-60,-23,-60,-56v-1,-31,25,-55,56,-55v41,0,61,41,61,82v-1,48,-25,102,-74,162r-42,-14v33,-41,53,-81,59,-119","w":202},"-":{"d":"291,-310r0,70r-236,0r0,-70r236,0","w":346},".":{"d":"101,7v-31,0,-56,-25,-56,-56v0,-31,25,-55,56,-55v31,0,55,24,55,55v0,31,-24,56,-55,56","w":201},"\/":{"d":"329,-770r83,0r-309,1030r-83,0","w":432},"0":{"d":"82,-142v-27,-76,-27,-206,0,-282v26,-71,72,-114,136,-138v54,-21,122,-20,176,0v102,36,158,134,158,279v0,145,-55,243,-158,279v-54,20,-122,21,-176,0v-63,-24,-111,-67,-136,-138xm306,-63v109,0,162,-88,162,-220v0,-77,-16,-133,-47,-168v-31,-35,-70,-52,-115,-52v-109,0,-162,88,-162,220v0,77,16,133,47,168v31,35,70,52,115,52","w":612},"1":{"d":"274,0r-81,0r0,-480r-89,75r-54,-52r143,-108r81,0r0,565","w":357},"2":{"d":"367,-394v1,-68,-37,-103,-102,-103v-57,0,-112,37,-146,90v-34,-32,-51,-48,-51,-49v28,-50,113,-121,198,-121v116,0,187,61,186,177v0,45,-26,98,-80,158v-54,60,-115,116,-184,169r306,0r1,73r-445,0r0,-64r34,-24v76,-58,190,-144,248,-227v22,-32,35,-58,35,-79","w":550},"3":{"d":"240,-496v-56,0,-102,25,-130,70r-47,-46v31,-55,89,-104,176,-105v92,-2,170,69,170,162v0,51,-30,99,-89,143v94,10,179,89,179,191v0,147,-86,237,-194,277v-61,23,-120,26,-181,4v-42,-15,-58,-27,-84,-47r53,-52v42,36,144,44,206,12v58,-30,115,-102,115,-194v0,-62,-58,-122,-121,-121v-53,1,-102,14,-141,26r0,-70v54,-22,97,-46,128,-72v31,-26,47,-59,47,-97v0,-47,-40,-81,-87,-81","w":558},"4":{"d":"598,-73r0,73r-113,0r0,215r-81,0r0,-215r-364,0r0,-44r392,-521r53,0r0,492r113,0xm169,-73r235,0r0,-336r-240,325v-4,5,-11,9,-14,15","w":628},"5":{"d":"440,-83v0,-72,-66,-157,-140,-157v-51,0,-95,12,-132,37r-81,0r0,-362r376,0r0,76r-295,0r0,202v39,-17,83,-26,132,-26v116,0,226,117,226,230v0,146,-87,234,-192,279v-84,36,-203,11,-247,-32r-17,-17r52,-51v19,21,71,38,117,38v49,0,94,-18,137,-56v43,-38,64,-92,64,-161","w":590},"6":{"d":"347,-474v134,0,216,80,213,227v-1,64,-21,116,-50,161v-33,52,-101,94,-187,93v-83,0,-146,-31,-191,-93v-45,-62,-68,-152,-68,-269v0,-117,29,-217,83,-303v91,-144,249,-166,381,-61r-54,52v-58,-50,-156,-56,-216,-4v-54,47,-83,133,-100,213v-8,39,-12,78,-13,115v57,-87,125,-131,202,-131xm156,-235v19,95,67,165,167,168v70,3,123,-53,140,-103v9,-26,13,-52,13,-77v2,-97,-44,-153,-129,-153v-75,0,-138,55,-191,165","w":620},"7":{"d":"44,-485r0,-80r443,0r0,59v-63,133,-141,282,-233,448v-92,166,-157,257,-193,273r-56,-55v28,-17,83,-98,165,-243v82,-145,154,-279,214,-402r-340,0","w":517},"8":{"d":"297,-781v119,0,211,46,212,166v1,104,-88,172,-156,215v54,40,78,58,121,103v32,34,55,69,55,126v0,139,-106,187,-249,182v-119,-4,-215,-56,-215,-182v0,-107,87,-180,157,-230v-91,-73,-137,-144,-137,-214v0,-120,93,-166,212,-166xm256,-62v96,12,187,-14,188,-109v0,-28,-14,-56,-42,-85v-28,-29,-69,-63,-124,-102v-81,52,-125,114,-128,187v-2,37,13,66,36,81v22,14,39,25,70,28xm297,-717v-69,0,-129,30,-127,102v0,29,11,58,33,85v22,27,53,56,92,87v59,-30,125,-87,129,-172v3,-72,-58,-102,-127,-102","w":594},"9":{"d":"273,-96v-134,0,-216,-80,-213,-227v1,-64,21,-116,50,-161v33,-52,101,-94,187,-93v83,0,144,32,191,93v80,104,85,353,24,493v-46,105,-110,200,-250,206v-70,2,-144,-30,-182,-56r55,-53v70,38,165,49,225,-4v77,-68,107,-195,115,-328v-59,87,-126,130,-202,130xm144,-323v-2,97,44,153,129,153v74,0,138,-55,191,-164v-19,-96,-67,-166,-167,-169v-70,-3,-123,53,-140,103v-9,26,-13,52,-13,77","w":620},":":{"d":"126,7v-31,0,-56,-25,-56,-56v0,-31,25,-55,56,-55v31,0,55,24,55,55v0,31,-24,56,-55,56xm126,-359v-31,0,-56,-25,-56,-56v0,-31,25,-55,56,-55v31,0,55,24,55,55v0,31,-24,56,-55,56","w":251},";":{"d":"130,7v-34,1,-60,-23,-60,-56v-1,-31,25,-55,56,-55v41,0,61,41,61,82v-1,48,-25,102,-74,162r-42,-14v33,-41,53,-81,59,-119xm126,-359v-31,0,-56,-25,-56,-56v0,-31,25,-55,56,-55v31,0,55,24,55,55v0,31,-24,56,-55,56","w":257},"<":{"d":"75,-244r0,-72r555,-251r0,72r-476,215r476,215r0,72","w":700},"=":{"d":"616,-395r0,67r-551,0r0,-67r551,0xm616,-235r0,67r-551,0r0,-67r551,0","w":681},">":{"d":"625,-316r0,72r-555,251r0,-72r475,-215r-475,-215r0,-72","w":700},"?":{"d":"230,-165v-41,-36,-72,-61,-72,-129v0,-29,9,-56,26,-80v43,-63,139,-124,178,-198v13,-24,22,-46,22,-68v0,-73,-41,-110,-124,-110v-86,0,-132,65,-166,120r-53,-50v43,-67,110,-140,219,-140v128,0,205,57,208,180v2,87,-56,149,-98,191v-37,37,-141,126,-135,156v0,29,15,57,46,84xm251,7v-31,0,-56,-25,-56,-56v0,-31,25,-55,56,-55v31,0,55,24,55,55v0,31,-24,56,-55,56","w":504},"@":{"d":"933,50v-131,103,-185,147,-374,147v-193,0,-347,-97,-429,-223v-93,-144,-89,-333,-1,-483v80,-137,234,-261,430,-261v217,0,359,114,423,270v37,91,41,202,4,290v-32,77,-83,118,-151,153v-49,24,-90,38,-146,38v-54,0,-75,-30,-62,-89v-68,60,-135,90,-201,89v-90,-1,-135,-63,-135,-187v0,-162,83,-283,186,-345v89,-53,184,-27,235,52r14,-59r78,18v-68,302,-102,455,-102,458v59,0,116,-36,156,-70v43,-37,77,-112,74,-196v-4,-97,-43,-176,-96,-232v-58,-63,-159,-111,-277,-110v-163,2,-296,107,-361,222v-38,67,-58,135,-58,207v0,214,204,384,419,378v163,-5,210,-39,324,-129xm692,-407v-30,-69,-52,-112,-125,-112v-44,0,-88,31,-131,92v-43,61,-65,135,-65,221v0,83,18,127,55,127v111,0,177,-96,229,-160","w":1072},"A":{"d":"314,-770r92,0r284,770r-93,0r-97,-262r-281,0r-96,262r-93,0xm360,-644r-113,306r225,0","w":720},"B":{"d":"578,-237v7,174,-89,249,-260,249v-45,0,-93,-20,-145,-57r0,45r-88,0r0,-770r88,0r0,56v65,-39,91,-67,173,-67v120,0,201,86,197,223v-2,73,-27,125,-78,158v69,28,110,87,113,163xm173,-356r0,241v76,53,180,57,260,19v20,-10,41,-40,49,-58v12,-28,19,-81,6,-114v-14,-31,-35,-60,-75,-74v-79,-26,-101,-12,-240,-14xm459,-560v1,-83,-42,-139,-113,-139v-52,0,-110,19,-173,58r0,213v87,-1,182,2,235,-32v18,-12,40,-31,46,-56v4,-13,5,-27,5,-44","w":639},"C":{"d":"372,12v-186,2,-315,-181,-312,-379v3,-189,80,-324,206,-387v81,-41,198,-27,262,11v32,19,64,40,82,68r-61,59v-31,-47,-91,-80,-172,-80v-61,0,-114,28,-159,85v-45,57,-68,138,-68,244v0,148,87,295,220,295v98,0,166,-38,218,-86r54,52v-59,77,-148,117,-270,118","w":663},"D":{"d":"173,0r-88,0r0,-770r88,0r0,85v67,-63,142,-95,227,-95v86,0,142,37,188,89v57,66,87,181,86,311v0,111,-30,205,-88,280v-106,137,-265,143,-413,43r0,57xm586,-380v0,-103,-18,-180,-54,-233v-36,-53,-80,-81,-129,-81v-91,0,-168,32,-230,95r0,462v120,77,267,99,351,-23v40,-58,62,-131,62,-220","w":734},"E":{"d":"522,0r-437,0r0,-770r318,0r105,-5r0,91r-335,0r0,248r285,0r0,76r-285,0r0,274r244,0r105,-5r0,91","w":562},"F":{"d":"173,0r-88,0r0,-770r318,0r105,-5r0,91r-335,0r0,248r285,0r0,76r-285,0r0,360","w":543},"G":{"d":"417,-74v49,1,164,-39,164,-82r0,-149v-62,-2,-145,7,-184,-15r0,-80v72,17,175,6,262,9r0,239v0,96,-135,165,-238,164v-203,-2,-311,-120,-350,-284v-33,-141,9,-300,72,-378v71,-87,206,-159,357,-118v70,19,117,60,156,106r-61,59v-34,-50,-92,-97,-175,-97v-74,0,-127,31,-174,70v-75,63,-119,222,-80,356v32,110,110,196,251,200","w":745},"H":{"d":"173,0r-88,0r0,-770r88,0r0,334r396,0r0,-334r88,0r0,770r-88,0r0,-360r-396,0r0,360","w":742},"I":{"d":"173,0r-88,0r0,-770r88,0r0,770","w":258},"J":{"d":"-10,180v69,-20,124,-72,124,-163r0,-787r88,0r0,787v-2,137,-76,208,-180,242","w":286},"K":{"d":"85,-770r88,0r0,347r264,-347r111,0r-288,360v34,5,87,31,106,56v13,1,223,349,232,352r0,2r-107,0v-13,-6,-172,-284,-185,-289v-34,-40,-78,-50,-133,-41r0,330r-88,0r0,-770"},"L":{"d":"85,0r0,-770r88,0r0,684r274,0r105,-5r0,91r-467,0","w":587},"M":{"d":"173,0r-88,0r0,-770r88,0r251,660r1,7r1,-7r252,-660r88,0r0,770r-88,0r1,-555r-4,15r-207,540r-85,0r-207,-540r-4,-15","w":851},"N":{"d":"173,0r-88,0r0,-770r88,0r372,606r7,14r-1,-620r88,0r0,770r-88,0r-372,-608r-7,-14","w":724},"O":{"d":"381,-780v225,0,315,157,318,392v2,194,-65,328,-202,376v-70,25,-166,26,-235,0v-82,-31,-143,-89,-175,-184v-34,-102,-34,-278,0,-380v32,-95,93,-154,176,-185v36,-13,75,-19,118,-19xm466,-682v-50,-21,-118,-21,-170,-1v-102,39,-148,146,-148,295v0,150,43,258,146,298v51,20,119,20,170,0v101,-39,147,-148,147,-296v0,-148,-45,-256,-145,-296","w":759},"P":{"d":"568,-538v3,167,-88,307,-238,307v-55,0,-108,-18,-157,-52r0,283r-88,0r0,-770r88,0r0,60v114,-87,224,-98,325,-2v46,44,69,102,70,174xm334,-307v100,0,150,-111,150,-231v0,-85,-63,-160,-133,-160v-83,0,-115,25,-178,62r0,265v54,42,108,64,161,64"},"Q":{"d":"672,-570v33,98,34,264,4,366v-27,92,-80,150,-152,186v-32,15,-67,24,-105,28v23,27,60,40,113,40v17,0,49,-5,94,-16r24,79v-45,21,-146,26,-203,7v-59,-20,-93,-60,-117,-111v-79,-9,-144,-45,-194,-107v-50,-62,-76,-156,-76,-283v1,-204,70,-343,226,-387v68,-19,151,-14,212,10v82,34,142,92,174,188xm511,-654v-49,-40,-141,-58,-215,-28v-101,41,-148,150,-148,299v0,150,43,258,146,298v51,20,119,20,170,0v101,-39,148,-148,147,-296v0,-125,-33,-218,-100,-273","w":759},"R":{"d":"553,-561v-4,132,-63,214,-172,236v27,23,71,78,133,165v62,87,105,140,130,158r0,2r-109,0v-77,-64,-139,-193,-211,-268v-27,-29,-51,-50,-73,-50v-37,0,-63,0,-78,-1r0,319r-88,0r0,-770r88,0r0,56v63,-36,93,-66,174,-66v118,0,210,82,206,219xm347,-698v-81,0,-113,22,-174,56r0,252r148,0v91,-5,148,-62,148,-171v0,-83,-52,-137,-122,-137","w":659},"S":{"d":"604,-211v4,140,-119,225,-256,222v-129,-2,-226,-53,-291,-148r61,-58v45,74,125,122,232,126v106,5,206,-82,159,-189v-14,-33,-30,-44,-65,-61v-134,-65,-342,-57,-342,-249v0,-142,93,-210,230,-213v101,-2,191,39,240,93r-62,54v-43,-45,-102,-67,-178,-67v-84,0,-146,43,-146,133v-1,30,17,57,34,69v113,78,315,71,368,210v9,24,16,49,16,78","w":665},"T":{"d":"10,-694r0,-76r542,0r0,76r-229,0r0,694r-88,0r0,-694r-225,0","w":562},"U":{"d":"357,-65v114,0,183,-58,183,-174r0,-531r88,0r0,531v-2,171,-104,251,-271,251v-167,0,-272,-80,-272,-251r0,-531r88,0r0,529v1,118,69,176,184,176","w":713},"V":{"d":"396,0r-92,0r-274,-770r93,0r224,633r3,13r3,-13r224,-633r93,0","w":700},"W":{"d":"321,0r-73,0r-218,-770r92,0r160,620r2,12r2,-12r160,-620r93,0r160,620r2,12r2,-12r160,-620r93,0r-218,770r-73,0r-170,-594r-3,-18r-3,18","w":986},"X":{"d":"520,-770r107,0r-245,386r245,384r-108,0r-191,-299r-190,299r-108,0r244,-384r-244,-386r107,0r191,301","w":657},"Y":{"d":"505,-770r102,0r-254,401r0,369r-87,0r0,-369r-256,-401r106,0r194,306","w":617},"Z":{"d":"564,-16v-21,15,-80,17,-118,16r-395,0r0,-82r385,-606r-375,0r0,-82r482,0r0,80r-385,608r290,0v63,2,101,-4,116,-19r0,85","w":614},"[":{"d":"289,-770r0,60r-120,0r0,910r120,0r0,60r-204,0r0,-1030r204,0","w":359},"\\":{"d":"25,-770r83,0r309,1030r-83,0","w":442},"]":{"d":"70,260r0,-60r120,0r0,-910r-120,0r0,-60r204,0r0,1030r-204,0","w":359},"^":{"d":"291,-550r72,0r251,550r-72,0r-215,-471r-215,471r-72,0","w":654},"_":{"d":"606,0r0,64r-551,0r0,-64r551,0","w":661},"`":{"d":"55,-699r21,-71r225,112r-21,47","w":356},"a":{"d":"210,12v-89,0,-149,-54,-150,-150v-1,-126,79,-163,193,-180v69,-10,116,-17,139,-23r0,-63v0,-33,-23,-89,-62,-89v-71,0,-128,16,-168,52v-12,11,-10,26,0,36r-80,15v-25,-40,4,-95,39,-113v73,-38,146,-60,221,-59v86,2,131,71,131,158r0,271v1,41,27,76,56,95r-54,50v-39,-15,-64,-48,-77,-97v-61,65,-123,97,-188,97xm143,-138v0,46,25,80,64,80v79,0,145,-61,185,-110r0,-101v-52,14,-197,19,-226,57v-14,18,-23,43,-23,74","w":564},"b":{"d":"571,-284v0,170,-75,294,-231,296v-51,0,-108,-25,-171,-76r0,64r-84,0r0,-820r84,0r0,376v62,-79,130,-119,204,-118v125,0,198,143,198,278xm340,-70v101,0,147,-98,147,-214v0,-89,-37,-194,-114,-196v-80,-2,-148,43,-204,130r0,194v38,39,106,86,171,86","w":631},"c":{"d":"338,9v-178,33,-284,-109,-283,-274v0,-96,24,-170,73,-222v64,-67,133,-93,224,-65v48,15,82,45,108,78r-53,50v-22,-33,-64,-56,-118,-58v-39,-1,-73,17,-104,55v-31,38,-46,92,-46,162v0,101,52,195,145,197v68,1,94,-24,134,-57r52,50v-39,40,-82,75,-132,84","w":510},"d":{"d":"546,-132v3,39,33,80,65,96r-69,48v-47,-25,-73,-65,-80,-118v-62,79,-130,119,-204,118v-125,0,-198,-143,-198,-278v0,-170,75,-294,231,-296v51,0,108,25,171,76r0,-334r84,0r0,688xm291,-480v-101,0,-147,98,-147,214v0,89,37,194,114,196v81,2,149,-42,204,-130r0,-194v-41,-39,-105,-86,-171,-86","w":651},"e":{"d":"296,12v-149,0,-241,-131,-241,-281v0,-145,97,-297,237,-293v161,4,228,118,225,283r-378,0v-1,113,51,217,157,217v87,0,126,-41,170,-95r51,49v-55,66,-109,120,-221,120xm429,-353v-17,-70,-51,-135,-137,-135v-76,0,-123,68,-141,135r278,0","w":580},"f":{"d":"256,-755v-97,0,-67,116,-72,205r162,0r0,70r-162,0r0,480r-83,0r0,-480r-71,0r0,-70r71,0r0,-96v0,-119,52,-179,155,-179v67,0,126,21,177,63r-54,52v-39,-30,-80,-45,-123,-45","w":403},"g":{"d":"296,-500v-63,0,-131,42,-131,112v0,86,49,127,131,127v80,0,129,-43,131,-127v2,-70,-68,-112,-131,-112xm60,108v0,-87,32,-125,84,-165v-31,-13,-51,-35,-51,-65v0,-31,24,-66,71,-104v-55,-31,-83,-85,-83,-162v0,-119,100,-176,215,-176v21,0,43,3,67,9v59,-51,127,-74,211,-49r-14,70v-39,-11,-91,-6,-127,10v52,33,78,79,78,136v2,151,-125,207,-275,186v-39,28,-59,55,-59,80v56,12,164,6,221,18v88,18,182,49,180,154v-3,144,-115,225,-278,225v-113,0,-240,-64,-240,-167xm145,108v0,61,85,92,155,92v113,0,198,-52,198,-150v0,-64,-74,-74,-130,-84v-27,-5,-122,-6,-144,-7v-54,35,-79,61,-79,149","w":616},"h":{"d":"169,0r-84,0r0,-820r84,0r0,386v88,-85,168,-128,240,-128v85,0,127,57,127,171r0,391r-84,0r0,-391v0,-58,-14,-87,-43,-87v-76,0,-156,44,-240,131r0,347","w":606},"i":{"d":"94,-550r83,0r0,550r-83,0r0,-550xm136,-669v-29,0,-51,-22,-51,-51v0,-29,22,-50,51,-50v29,0,50,21,50,50v0,29,-21,51,-50,51","w":271},"j":{"d":"86,-669v-29,0,-51,-22,-51,-51v0,-29,22,-50,51,-50v29,0,50,21,50,50v0,29,-21,51,-50,51xm-35,196v46,-8,79,-90,79,-153r0,-593r83,0r0,593v4,106,-65,207,-137,232","w":221},"k":{"d":"570,0r-113,0v-8,-3,-25,-17,-50,-44v-34,-35,-137,-158,-166,-189v-20,-21,-36,-33,-48,-36v-7,-2,-15,-2,-24,1r0,268r-84,0r0,-820r84,0r0,464v125,-87,198,-152,219,-194r85,0v-11,43,-87,118,-228,224v21,9,40,21,56,39r165,186v62,67,97,101,104,101","w":565},"l":{"d":"242,12v-120,-1,-157,-39,-157,-158r0,-674r83,0r0,674v-3,76,19,81,77,87","w":280},"m":{"d":"169,0r-84,0r0,-550r84,0r0,109v73,-81,143,-121,208,-121v72,0,113,41,124,124v74,-83,144,-124,211,-124v85,0,127,57,127,171r0,391r-84,0r0,-391v0,-58,-14,-87,-43,-87v-79,-2,-134,49,-172,87v-10,10,-21,24,-36,42r0,349r-84,0r0,-391v0,-58,-14,-87,-43,-87v-79,-2,-133,49,-171,87v-10,10,-22,24,-37,42r0,349","w":919},"n":{"d":"169,0r-84,0r0,-550r84,0r0,116v88,-85,168,-128,240,-128v85,0,127,57,127,171r0,391r-84,0r0,-391v0,-58,-14,-87,-43,-87v-74,0,-154,44,-240,131r0,347","w":616},"o":{"d":"299,12v-167,0,-239,-111,-239,-287v0,-176,71,-287,239,-287v167,0,239,111,239,287v0,176,-71,287,-239,287xm299,-58v107,0,155,-86,155,-217v0,-77,-14,-133,-44,-167v-30,-34,-67,-50,-111,-50v-107,0,-155,86,-155,217v0,77,14,133,44,167v30,34,67,50,111,50","w":598},"p":{"d":"571,-284v0,170,-75,294,-231,296v-51,0,-108,-25,-171,-76r0,324r-84,0r0,-810r84,0r0,106v62,-79,130,-119,204,-118v125,0,198,143,198,278xm340,-70v101,0,147,-98,147,-214v0,-89,-37,-194,-114,-196v-80,-2,-148,43,-204,130r0,194v38,39,106,86,171,86","w":631},"q":{"d":"60,-266v0,-170,75,-294,231,-296v51,0,108,25,171,76r0,-64r84,0r0,810r-84,0r0,-365v-63,79,-131,118,-204,117v-125,0,-198,-143,-198,-278xm291,-480v-101,0,-147,98,-147,214v0,89,37,194,114,196v81,2,149,-42,204,-130r0,-194v-41,-39,-105,-86,-171,-86","w":631},"r":{"d":"85,-550r84,0r0,106v46,-79,92,-118,139,-118v53,0,100,18,133,55r-58,56v-16,-21,-40,-31,-71,-31v-51,0,-99,46,-143,138r0,344r-84,0r0,-550","w":459},"s":{"d":"249,-492v-54,-1,-91,32,-92,87v-1,42,42,56,71,67v100,36,220,52,223,187v3,151,-187,200,-313,134v-39,-20,-70,-47,-93,-83r58,-47v25,49,90,88,159,89v58,1,109,-33,109,-93v0,-37,-37,-65,-63,-75v-61,-23,-124,-35,-176,-70v-35,-22,-55,-55,-55,-109v0,-105,70,-157,172,-157v73,0,130,21,173,64r-54,52v-29,-31,-68,-46,-119,-46","w":501},"t":{"d":"199,-160v0,50,3,101,52,102v31,0,60,-13,87,-38r47,45v-44,42,-96,63,-156,63v-76,0,-114,-57,-114,-172r0,-320r-70,0r0,-70r70,0r0,-150r84,0r0,150r132,0r0,70r-132,0r0,320","w":400},"u":{"d":"207,-72v76,0,156,-44,240,-131r0,-347r84,0r0,550r-84,0r0,-115v-89,85,-169,127,-240,127v-85,0,-127,-57,-127,-171r0,-391r84,0r0,391v0,58,14,87,43,87","w":616},"v":{"d":"524,-550v-25,28,-95,219,-206,550r-73,0r-210,-550r97,0r143,425r3,19r3,-19v80,-265,131,-406,152,-425r91,0","w":559},"w":{"d":"273,0r-79,0r-159,-550r91,0r109,410r3,21r3,-21r117,-410r72,0r117,410r4,21r3,-21v71,-266,113,-403,126,-410r82,0v-8,8,-29,57,-56,150r-118,400r-71,0r-123,-424","w":797},"x":{"d":"60,-550r106,0r136,199v87,-129,136,-195,148,-199r104,0v-16,7,-84,97,-205,268r200,282r-106,0r-142,-212v-96,139,-148,209,-157,212r-104,0v35,-26,183,-236,214,-281","w":594},"y":{"d":"50,-550r89,0r149,386v100,-245,157,-374,172,-386r95,0v-15,14,-35,53,-63,114v-22,47,-134,320,-225,539v-15,34,-48,85,-75,111v-39,37,-86,58,-142,61r-21,-73v72,-4,113,-40,142,-91v18,-31,52,-113,71,-161","w":550},"z":{"d":"478,-88r0,71v-12,12,-48,17,-72,17r-356,0r0,-71r310,-409r-310,0r0,-70r411,0r0,70r-310,409r256,0v37,0,60,-6,71,-17","w":518},"{":{"d":"176,-678v3,-79,27,-150,108,-152v43,0,82,11,116,33r-28,70v-19,-13,-48,-19,-88,-19v-16,0,-24,23,-24,68r0,299v-4,46,-31,77,-64,97v34,20,64,49,64,97r0,299v0,45,8,68,24,68v34,0,71,-7,88,-19r28,70v-33,22,-72,33,-116,33v-81,-2,-108,-73,-108,-152r0,-298v-5,-48,-41,-72,-96,-73r0,-50v53,0,96,-25,96,-73r0,-298","w":470},"|":{"d":"161,260r-76,0r0,-1090r76,0r0,1090","w":246},"}":{"d":"273,-282v-33,-19,-62,-53,-63,-97r0,-299v0,-45,-8,-68,-24,-68v-34,0,-71,7,-88,19r-28,-70v33,-22,72,-33,116,-33v81,2,108,73,108,152r0,298v3,49,41,72,96,73r0,50v-55,0,-96,24,-96,72r0,299v-3,79,-27,150,-108,152v-43,0,-82,-11,-116,-33r28,-70v19,13,48,19,88,19v16,0,24,-23,24,-68r0,-298v2,-42,31,-79,63,-98","w":470},"~":{"d":"206,-382v46,0,205,61,253,61v52,0,90,-8,114,-23r26,50v-35,22,-81,33,-140,33v-31,0,-79,-11,-144,-34v-79,-28,-106,-34,-176,-21v-27,5,-35,9,-49,18r-30,-48v26,-21,92,-36,146,-36","w":659},"\u00a0":{"w":260},"\u00ad":{"d":"291,-310r0,70r-236,0r0,-70r236,0","w":346},"\u2013":{"d":"581,-308r0,65r-551,0r0,-65r551,0","w":641},"\u2014":{"d":"721,-308r0,65r-681,0r0,-65r681,0","w":761},"\u201c":{"d":"272,-637v34,-1,61,23,61,56v0,31,-25,55,-56,55v-41,0,-61,-41,-61,-82v1,-48,25,-102,74,-162r42,14v-33,41,-53,81,-60,119xm101,-637v34,-1,61,23,61,56v0,31,-25,55,-56,55v-41,0,-61,-41,-61,-82v1,-48,25,-102,74,-162r42,14v-33,41,-53,81,-60,119","w":378},"\u201d":{"d":"105,-659v-34,1,-60,-23,-60,-56v-1,-31,25,-55,56,-55v41,0,61,41,61,82v-1,48,-25,102,-74,162r-42,-14v33,-41,53,-81,59,-119xm276,-659v-34,1,-60,-23,-60,-56v-1,-31,25,-55,56,-55v40,0,61,41,61,82v-1,48,-25,102,-74,162r-42,-14v33,-41,53,-81,59,-119","w":378}}});
